<?xml version="1.0"?>
<opencv_storage>
<cascade>
  <stageType>BOOST</stageType>
  <featureType>HAAR</featureType>
  <height>24</height>
  <width>24</width>
  <stageParams>
    <boostType>GAB</boostType>
    <minHitRate>9.9500000476837158e-01</minHitRate>
    <maxFalseAlarm>5.0000000000000000e-01</maxFalseAlarm>
    <weightTrimRate>9.4999999999999996e-01</weightTrimRate>
    <maxDepth>1</maxDepth>
    <maxWeakCount>100</maxWeakCount></stageParams>
  <featureParams>
    <maxCatCount>0</maxCatCount>
    <featSize>1</featSize>
    <mode>BASIC</mode></featureParams>
  <stageNum>16</stageNum>
  <stages>
    <!-- stage 0 -->
    <_>
      <maxWeakCount>3</maxWeakCount>
      <stageThreshold>-1.0366103649139404e+00</stageThreshold>
      <weakClassifiers>
        <_>
          <internalNodes>
            0 -1 30 2.9662364721298218e-01</internalNodes>
          <leafValues>
            -9.7905761003494263e-01 7.9816514253616333e-01</leafValues></_>
        <_>
          <internalNodes>
            0 -1 68 2.0098879933357239e-02</internalNodes>
          <leafValues>
            -8.4196436405181885e-01 7.2396546602249146e-01</leafValues></_>
        <_>
          <internalNodes>
            0 -1 39 1.1917655356228352e-02</internalNodes>
          <leafValues>
            -8.1246256828308105e-01 7.8441160917282104e-01</leafValues></_></weakClassifiers></_>
    <!-- stage 1 -->
    <_>
      <maxWeakCount>2</maxWeakCount>
      <stageThreshold>-2.4363194406032562e-01</stageThreshold>
      <weakClassifiers>
        <_>
          <internalNodes>
            0 -1 73 -2.9869684949517250e-03</internalNodes>
          <leafValues>
            8.6813187599182129e-01 -8.5645931959152222e-01</leafValues></_>
        <_>
          <internalNodes>
            0 -1 56 -6.4225727692246437e-03</internalNodes>
          <leafValues>
            6.1282742023468018e-01 -9.1039788722991943e-01</leafValues></_></weakClassifiers></_>
    <!-- stage 2 -->
    <_>
      <maxWeakCount>3</maxWeakCount>
      <stageThreshold>-9.2293810844421387e-01</stageThreshold>
      <weakClassifiers>
        <_>
          <internalNodes>
            0 -1 6 1.8598396331071854e-02</internalNodes>
          <leafValues>
            -7.0796459913253784e-01 8.1081080436706543e-01</leafValues></_>
        <_>
          <internalNodes>
            0 -1 62 1.0181844234466553e-01</internalNodes>
          <leafValues>
            -7.8899639844894409e-01 5.7056546211242676e-01</leafValues></_>
        <_>
          <internalNodes>
            0 -1 29 -2.1599129831884056e-04</internalNodes>
          <leafValues>
            5.7402288913726807e-01 -7.1093773841857910e-01</leafValues></_></weakClassifiers></_>
    <!-- stage 3 -->
    <_>
      <maxWeakCount>2</maxWeakCount>
      <stageThreshold>-2.5960266590118408e-01</stageThreshold>
      <weakClassifiers>
        <_>
          <internalNodes>
            0 -1 14 2.3441996425390244e-02</internalNodes>
          <leafValues>
            -6.7965370416641235e-01 8.2608693838119507e-01</leafValues></_>
        <_>
          <internalNodes>
            0 -1 79 -1.5485839918255806e-02</internalNodes>
          <leafValues>
            -9.6391791105270386e-01 4.2005100846290588e-01</leafValues></_></weakClassifiers></_>
    <!-- stage 4 -->
    <_>
      <maxWeakCount>3</maxWeakCount>
      <stageThreshold>-9.5509600639343262e-01</stageThreshold>
      <weakClassifiers>
        <_>
          <internalNodes>
            0 -1 37 -2.9051471501588821e-02</internalNodes>
          <leafValues>
            7.8787881135940552e-01 -6.4957267045974731e-01</leafValues></_>
        <_>
          <internalNodes>
            0 -1 75 -7.0428638719022274e-04</internalNodes>
          <leafValues>
            5.1042711734771729e-01 -8.8516777753829956e-01</leafValues></_>
        <_>
          <internalNodes>
            0 -1 63 -3.5251687222626060e-05</internalNodes>
          <leafValues>
            5.7964438199996948e-01 -6.1182963848114014e-01</leafValues></_></weakClassifiers></_>
    <!-- stage 5 -->
    <_>
      <maxWeakCount>5</maxWeakCount>
      <stageThreshold>-6.6501915454864502e-01</stageThreshold>
      <weakClassifiers>
        <_>
          <internalNodes>
            0 -1 1 5.6926935911178589e-02</internalNodes>
          <leafValues>
            -6.5106385946273804e-01 8.1538462638854980e-01</leafValues></_>
        <_>
          <internalNodes>
            0 -1 10 -5.6401239708065987e-03</internalNodes>
          <leafValues>
            4.7401160001754761e-01 -7.8502315282821655e-01</leafValues></_>
        <_>
          <internalNodes>
            0 -1 58 9.7999433055520058e-03</internalNodes>
          <leafValues>
            -4.4249272346496582e-01 7.1968764066696167e-01</leafValues></_>
        <_>
          <internalNodes>
            0 -1 70 -2.3643058375455439e-04</internalNodes>
          <leafValues>
            5.6014376878738403e-01 -6.4878660440444946e-01</leafValues></_>
        <_>
          <internalNodes>
            0 -1 41 -7.2430074214935303e-03</internalNodes>
          <leafValues>
            7.0016676187515259e-01 -4.5731404423713684e-01</leafValues></_></weakClassifiers></_>
    <!-- stage 6 -->
    <_>
      <maxWeakCount>5</maxWeakCount>
      <stageThreshold>-8.7718749046325684e-01</stageThreshold>
      <weakClassifiers>
        <_>
          <internalNodes>
            0 -1 25 3.7848210334777832e-01</internalNodes>
          <leafValues>
            -6.9999998807907104e-01 4.0000000596046448e-01</leafValues></_>
        <_>
          <internalNodes>
            0 -1 66 -9.9264958407729864e-04</internalNodes>
          <leafValues>
            -8.6147946119308472e-01 2.1668283641338348e-01</leafValues></_>
        <_>
          <internalNodes>
            0 -1 64 7.6026466558687389e-05</internalNodes>
          <leafValues>
            -6.6260212659835815e-01 3.3728551864624023e-01</leafValues></_>
        <_>
          <internalNodes>
            0 -1 5 -1.9558048807084560e-03</internalNodes>
          <leafValues>
            8.2007122039794922e-01 -3.3761784434318542e-01</leafValues></_>
        <_>
          <internalNodes>
            0 -1 8 2.1994300186634064e-02</internalNodes>
          <leafValues>
            -3.9353799819946289e-01 7.6770353317260742e-01</leafValues></_></weakClassifiers></_>
    <!-- stage 7 -->
    <_>
      <maxWeakCount>5</maxWeakCount>
      <stageThreshold>-1.0466958284378052e+00</stageThreshold>
      <weakClassifiers>
        <_>
          <internalNodes>
            0 -1 43 -1.3855989091098309e-02</internalNodes>
          <leafValues>
            3.6263737082481384e-01 -6.3636362552642822e-01</leafValues></_>
        <_>
          <internalNodes>
            0 -1 34 2.5009775161743164e-01</internalNodes>
          <leafValues>
            -6.3562971353530884e-01 4.9423161149024963e-01</leafValues></_>
        <_>
          <internalNodes>
            0 -1 54 3.0398712260648608e-04</internalNodes>
          <leafValues>
            -5.1823431253433228e-01 4.2329207062721252e-01</leafValues></_>
        <_>
          <internalNodes>
            0 -1 51 2.3501694158767350e-05</internalNodes>
          <leafValues>
            -9.2328524589538574e-01 2.5333282351493835e-01</leafValues></_>
        <_>
          <internalNodes>
            0 -1 72 -4.3906439095735550e-03</internalNodes>
          <leafValues>
            5.3722476959228516e-01 -4.5132729411125183e-01</leafValues></_></weakClassifiers></_>
    <!-- stage 8 -->
    <_>
      <maxWeakCount>6</maxWeakCount>
      <stageThreshold>-7.0941108465194702e-01</stageThreshold>
      <weakClassifiers>
        <_>
          <internalNodes>
            0 -1 32 -2.9377438127994537e-02</internalNodes>
          <leafValues>
            6.1643832921981812e-01 -6.3876652717590332e-01</leafValues></_>
        <_>
          <internalNodes>
            0 -1 74 1.9987099803984165e-03</internalNodes>
          <leafValues>
            -6.3426864147186279e-01 3.4777694940567017e-01</leafValues></_>
        <_>
          <internalNodes>
            0 -1 53 -3.1568662961944938e-04</internalNodes>
          <leafValues>
            2.0636606216430664e-01 -1.</leafValues></_>
        <_>
          <internalNodes>
            0 -1 80 5.8283654652768746e-05</internalNodes>
          <leafValues>
            -4.5960125327110291e-01 5.1692044734954834e-01</leafValues></_>
        <_>
          <internalNodes>
            0 -1 35 7.7053204178810120e-02</internalNodes>
          <leafValues>
            2.5605100393295288e-01 -9.6435868740081787e-01</leafValues></_>
        <_>
          <internalNodes>
            0 -1 23 1.1147070908918977e-03</internalNodes>
          <leafValues>
            -4.1571339964866638e-01 5.6545513868331909e-01</leafValues></_></weakClassifiers></_>
    <!-- stage 9 -->
    <_>
      <maxWeakCount>5</maxWeakCount>
      <stageThreshold>-1.1722782850265503e+00</stageThreshold>
      <weakClassifiers>
        <_>
          <internalNodes>
            0 -1 52 2.4330146610736847e-02</internalNodes>
          <leafValues>
            -5.8260869979858398e-01 4.8571428656578064e-01</leafValues></_>
        <_>
          <internalNodes>
            0 -1 76 1.1892888695001602e-02</internalNodes>
          <leafValues>
            -6.9272756576538086e-01 2.6669690012931824e-01</leafValues></_>
        <_>
          <internalNodes>
            0 -1 9 -1.8008908955380321e-03</internalNodes>
          <leafValues>
            2.3658071458339691e-01 -9.2772042751312256e-01</leafValues></_>
        <_>
          <internalNodes>
            0 -1 31 -7.2315808210987598e-05</internalNodes>
          <leafValues>
            2.8689262270927429e-01 -6.3462364673614502e-01</leafValues></_>
        <_>
          <internalNodes>
            0 -1 16 1.9066190579906106e-03</internalNodes>
          <leafValues>
            -4.5832359790802002e-01 4.9275055527687073e-01</leafValues></_></weakClassifiers></_>
    <!-- stage 10 -->
    <_>
      <maxWeakCount>6</maxWeakCount>
      <stageThreshold>-9.6354204416275024e-01</stageThreshold>
      <weakClassifiers>
        <_>
          <internalNodes>
            0 -1 4 1.9351042807102203e-02</internalNodes>
          <leafValues>
            -5.6521737575531006e-01 4.2857143282890320e-01</leafValues></_>
        <_>
          <internalNodes>
            0 -1 71 6.8691297201439738e-05</internalNodes>
          <leafValues>
            -4.4677200913429260e-01 4.7723582386970520e-01</leafValues></_>
        <_>
          <internalNodes>
            0 -1 24 -4.1525105189066380e-05</internalNodes>
          <leafValues>
            2.6296851038932800e-01 -8.5254573822021484e-01</leafValues></_>
        <_>
          <internalNodes>
            0 -1 2 6.9371862336993217e-03</internalNodes>
          <leafValues>
            2.3234122991561890e-01 -7.6332062482833862e-01</leafValues></_>
        <_>
          <internalNodes>
            0 -1 59 3.2878393540158868e-05</internalNodes>
          <leafValues>
            -4.3767488002777100e-01 5.3457987308502197e-01</leafValues></_>
        <_>
          <internalNodes>
            0 -1 3 -9.1560836881399155e-03</internalNodes>
          <leafValues>
            -9.7225475311279297e-01 1.8231888115406036e-01</leafValues></_></weakClassifiers></_>
    <!-- stage 11 -->
    <_>
      <maxWeakCount>10</maxWeakCount>
      <stageThreshold>-1.3953701257705688e+00</stageThreshold>
      <weakClassifiers>
        <_>
          <internalNodes>
            0 -1 55 1.1974571272730827e-02</internalNodes>
          <leafValues>
            -6.3541668653488159e-01 2.0370370149612427e-01</leafValues></_>
        <_>
          <internalNodes>
            0 -1 18 -3.5145079891663045e-05</internalNodes>
          <leafValues>
            2.3991562426090240e-01 -6.8981277942657471e-01</leafValues></_>
        <_>
          <internalNodes>
            0 -1 13 -7.6974127441644669e-03</internalNodes>
          <leafValues>
            -8.0827921628952026e-01 1.9215966761112213e-01</leafValues></_>
        <_>
          <internalNodes>
            0 -1 19 -3.8854088052175939e-04</internalNodes>
          <leafValues>
            6.0700637102127075e-01 -2.9608321189880371e-01</leafValues></_>
        <_>
          <internalNodes>
            0 -1 50 3.9207428926602006e-05</internalNodes>
          <leafValues>
            -8.6023902893066406e-01 2.1607610583305359e-01</leafValues></_>
        <_>
          <internalNodes>
            0 -1 17 3.1713746488094330e-02</internalNodes>
          <leafValues>
            -3.3261623978614807e-01 6.3411962985992432e-01</leafValues></_>
        <_>
          <internalNodes>
            0 -1 47 2.5584856048226357e-03</internalNodes>
          <leafValues>
            2.5656783580780029e-01 -8.9350575208663940e-01</leafValues></_>
        <_>
          <internalNodes>
            0 -1 67 -2.0649049431085587e-02</internalNodes>
          <leafValues>
            6.5906751155853271e-01 -2.9193979501724243e-01</leafValues></_>
        <_>
          <internalNodes>
            0 -1 22 6.3178123673424125e-04</internalNodes>
          <leafValues>
            -5.6384617090225220e-01 4.2881530523300171e-01</leafValues></_>
        <_>
          <internalNodes>
            0 -1 36 -9.9768690764904022e-02</internalNodes>
          <leafValues>
            -1.7240986227989197e-01 9.6615922451019287e-01</leafValues></_></weakClassifiers></_>
    <!-- stage 12 -->
    <_>
      <maxWeakCount>6</maxWeakCount>
      <stageThreshold>-1.3921278715133667e+00</stageThreshold>
      <weakClassifiers>
        <_>
          <internalNodes>
            0 -1 38 -7.4228281155228615e-03</internalNodes>
          <leafValues>
            3.6956521868705750e-01 -6.4423078298568726e-01</leafValues></_>
        <_>
          <internalNodes>
            0 -1 7 -2.0222228486090899e-03</internalNodes>
          <leafValues>
            7.6069122552871704e-01 -3.4342813491821289e-01</leafValues></_>
        <_>
          <internalNodes>
            0 -1 20 9.9358567968010902e-04</internalNodes>
          <leafValues>
            -4.0674546360969543e-01 5.8665829896926880e-01</leafValues></_>
        <_>
          <internalNodes>
            0 -1 27 -2.2275479137897491e-01</internalNodes>
          <leafValues>
            -1.3012793660163879e-01 9.4713616371154785e-01</leafValues></_>
        <_>
          <internalNodes>
            0 -1 21 1.0446987580507994e-03</internalNodes>
          <leafValues>
            -4.7504696249961853e-01 4.6488773822784424e-01</leafValues></_>
        <_>
          <internalNodes>
            0 -1 42 1.4571289066225290e-03</internalNodes>
          <leafValues>
            3.4943568706512451e-01 -4.9666801095008850e-01</leafValues></_></weakClassifiers></_>
    <!-- stage 13 -->
    <_>
      <maxWeakCount>7</maxWeakCount>
      <stageThreshold>-1.0216670036315918e+00</stageThreshold>
      <weakClassifiers>
        <_>
          <internalNodes>
            0 -1 65 -4.5858725905418396e-02</internalNodes>
          <leafValues>
            5.9090906381607056e-01 -4.9218750000000000e-01</leafValues></_>
        <_>
          <internalNodes>
            0 -1 69 -1.3986145146191120e-02</internalNodes>
          <leafValues>
            5.1584106683731079e-01 -4.6980637311935425e-01</leafValues></_>
        <_>
          <internalNodes>
            0 -1 77 4.2454361391719431e-05</internalNodes>
          <leafValues>
            -5.6854611635208130e-01 3.2424175739288330e-01</leafValues></_>
        <_>
          <internalNodes>
            0 -1 61 3.8704994949512184e-05</internalNodes>
          <leafValues>
            -3.6824536323547363e-01 4.9160271883010864e-01</leafValues></_>
        <_>
          <internalNodes>
            0 -1 60 -2.9245991259813309e-02</internalNodes>
          <leafValues>
            9.0422743558883667e-01 -1.5755735337734222e-01</leafValues></_>
        <_>
          <internalNodes>
            0 -1 33 -9.5437532290816307e-03</internalNodes>
          <leafValues>
            7.4520319700241089e-01 -2.1386270225048065e-01</leafValues></_>
        <_>
          <internalNodes>
            0 -1 57 9.3696737894788384e-04</internalNodes>
          <leafValues>
            3.5575050115585327e-01 -6.2536180019378662e-01</leafValues></_></weakClassifiers></_>
    <!-- stage 14 -->
    <_>
      <maxWeakCount>6</maxWeakCount>
      <stageThreshold>-7.4833172559738159e-01</stageThreshold>
      <weakClassifiers>
        <_>
          <internalNodes>
            0 -1 12 7.9532694071531296e-03</internalNodes>
          <leafValues>
            1.9148936867713928e-01 -5.7281553745269775e-01</leafValues></_>
        <_>
          <internalNodes>
            0 -1 11 -2.0984021830372512e-04</internalNodes>
          <leafValues>
            6.0343253612518311e-01 -3.1581854820251465e-01</leafValues></_>
        <_>
          <internalNodes>
            0 -1 26 2.5449657440185547e-01</internalNodes>
          <leafValues>
            -6.1313199996948242e-01 3.5756310820579529e-01</leafValues></_>
        <_>
          <internalNodes>
            0 -1 78 -4.4293428072705865e-04</internalNodes>
          <leafValues>
            -7.6662123203277588e-01 1.9127088785171509e-01</leafValues></_>
        <_>
          <internalNodes>
            0 -1 0 1.5268301358446479e-03</internalNodes>
          <leafValues>
            -3.7862381339073181e-01 4.2093217372894287e-01</leafValues></_>
        <_>
          <internalNodes>
            0 -1 48 -1.2928403913974762e-02</internalNodes>
          <leafValues>
            -1. 1.7987228929996490e-01</leafValues></_></weakClassifiers></_>
    <!-- stage 15 -->
    <_>
      <maxWeakCount>7</maxWeakCount>
      <stageThreshold>-9.3773454427719116e-01</stageThreshold>
      <weakClassifiers>
        <_>
          <internalNodes>
            0 -1 44 1.8098820000886917e-02</internalNodes>
          <leafValues>
            -6.1000001430511475e-01 2.1999999880790710e-01</leafValues></_>
        <_>
          <internalNodes>
            0 -1 28 -1.7877548933029175e-01</internalNodes>
          <leafValues>
            -2.1851830184459686e-01 1.</leafValues></_>
        <_>
          <internalNodes>
            0 -1 46 -4.3487077346071601e-04</internalNodes>
          <leafValues>
            4.7017744183540344e-01 -5.6813687086105347e-01</leafValues></_>
        <_>
          <internalNodes>
            0 -1 15 -1.8405455350875854e-01</internalNodes>
          <leafValues>
            -6.9741266965866089e-01 3.0339357256889343e-01</leafValues></_>
        <_>
          <internalNodes>
            0 -1 40 -6.2683038413524628e-03</internalNodes>
          <leafValues>
            -7.0721119642257690e-01 2.7152812480926514e-01</leafValues></_>
        <_>
          <internalNodes>
            0 -1 49 -1.8411088734865189e-02</internalNodes>
          <leafValues>
            7.6620614528656006e-01 -2.7660453319549561e-01</leafValues></_>
        <_>
          <internalNodes>
            0 -1 45 9.9758726719301194e-05</internalNodes>
          <leafValues>
            -6.6939651966094971e-01 2.7767872810363770e-01</leafValues></_></weakClassifiers></_></stages>
  <features>
    <_>
      <rects>
        <_>
          0 0 5 2 -1.</_>
        <_>
          0 1 5 1 2.</_></rects>
      <tilted>0</tilted></_>
    <_>
      <rects>
        <_>
          0 1 6 17 -1.</_>
        <_>
          3 1 3 17 2.</_></rects>
      <tilted>0</tilted></_>
    <_>
      <rects>
        <_>
          0 3 16 4 -1.</_>
        <_>
          0 3 8 2 2.</_>
        <_>
          8 5 8 2 2.</_></rects>
      <tilted>0</tilted></_>
    <_>
      <rects>
        <_>
          0 12 1 10 -1.</_>
        <_>
          0 17 1 5 2.</_></rects>
      <tilted>0</tilted></_>
    <_>
      <rects>
        <_>
          0 12 4 10 -1.</_>
        <_>
          2 12 2 10 2.</_></rects>
      <tilted>0</tilted></_>
    <_>
      <rects>
        <_>
          0 13 2 7 -1.</_>
        <_>
          1 13 1 7 2.</_></rects>
      <tilted>0</tilted></_>
    <_>
      <rects>
        <_>
          0 14 6 5 -1.</_>
        <_>
          3 14 3 5 2.</_></rects>
      <tilted>0</tilted></_>
    <_>
      <rects>
        <_>
          0 15 2 7 -1.</_>
        <_>
          1 15 1 7 2.</_></rects>
      <tilted>0</tilted></_>
    <_>
      <rects>
        <_>
          0 15 8 3 -1.</_>
        <_>
          4 15 4 3 2.</_></rects>
      <tilted>0</tilted></_>
    <_>
      <rects>
        <_>
          0 16 16 2 -1.</_>
        <_>
          0 17 16 1 2.</_></rects>
      <tilted>0</tilted></_>
    <_>
      <rects>
        <_>
          0 17 22 2 -1.</_>
        <_>
          0 18 22 1 2.</_></rects>
      <tilted>0</tilted></_>
    <_>
      <rects>
        <_>
          0 20 2 1 -1.</_>
        <_>
          1 20 1 1 2.</_></rects>
      <tilted>0</tilted></_>
    <_>
      <rects>
        <_>
          1 3 14 14 -1.</_>
        <_>
          1 3 7 7 2.</_>
        <_>
          8 10 7 7 2.</_></rects>
      <tilted>0</tilted></_>
    <_>
      <rects>
        <_>
          1 5 8 16 -1.</_>
        <_>
          1 5 4 8 2.</_>
        <_>
          5 13 4 8 2.</_></rects>
      <tilted>0</tilted></_>
    <_>
      <rects>
        <_>
          2 2 4 18 -1.</_>
        <_>
          4 2 2 18 2.</_></rects>
      <tilted>0</tilted></_>
    <_>
      <rects>
        <_>
          2 2 18 3 -1.</_>
        <_>
          8 2 6 3 2.</_></rects>
      <tilted>0</tilted></_>
    <_>
      <rects>
        <_>
          2 4 6 4 -1.</_>
        <_>
          2 4 3 2 2.</_>
        <_>
          5 6 3 2 2.</_></rects>
      <tilted>0</tilted></_>
    <_>
      <rects>
        <_>
          2 16 6 8 -1.</_>
        <_>
          5 16 3 8 2.</_></rects>
      <tilted>0</tilted></_>
    <_>
      <rects>
        <_>
          2 17 1 2 -1.</_>
        <_>
          2 18 1 1 2.</_></rects>
      <tilted>0</tilted></_>
    <_>
      <rects>
        <_>
          2 20 2 4 -1.</_>
        <_>
          2 20 1 2 2.</_>
        <_>
          3 22 1 2 2.</_></rects>
      <tilted>0</tilted></_>
    <_>
      <rects>
        <_>
          3 1 2 6 -1.</_>
        <_>
          4 1 1 6 2.</_></rects>
      <tilted>0</tilted></_>
    <_>
      <rects>
        <_>
          3 23 6 1 -1.</_>
        <_>
          6 23 3 1 2.</_></rects>
      <tilted>0</tilted></_>
    <_>
      <rects>
        <_>
          4 0 5 2 -1.</_>
        <_>
          4 1 5 1 2.</_></rects>
      <tilted>0</tilted></_>
    <_>
      <rects>
        <_>
          4 1 8 1 -1.</_>
        <_>
          8 1 4 1 2.</_></rects>
      <tilted>0</tilted></_>
    <_>
      <rects>
        <_>
          4 14 10 2 -1.</_>
        <_>
          4 15 10 1 2.</_></rects>
      <tilted>0</tilted></_>
    <_>
      <rects>
        <_>
          5 0 18 14 -1.</_>
        <_>
          5 7 18 7 2.</_></rects>
      <tilted>0</tilted></_>
    <_>
      <rects>
        <_>
          5 2 18 12 -1.</_>
        <_>
          5 8 18 6 2.</_></rects>
      <tilted>0</tilted></_>
    <_>
      <rects>
        <_>
          5 7 15 12 -1.</_>
        <_>
          10 7 5 12 2.</_></rects>
      <tilted>0</tilted></_>
    <_>
      <rects>
        <_>
          5 9 15 10 -1.</_>
        <_>
          10 9 5 10 2.</_></rects>
      <tilted>0</tilted></_>
    <_>
      <rects>
        <_>
          5 18 2 2 -1.</_>
        <_>
          5 19 2 1 2.</_></rects>
      <tilted>0</tilted></_>
    <_>
      <rects>
        <_>
          6 0 18 16 -1.</_>
        <_>
          6 8 18 8 2.</_></rects>
      <tilted>0</tilted></_>
    <_>
      <rects>
        <_>
          6 20 1 2 -1.</_>
        <_>
          6 21 1 1 2.</_></rects>
      <tilted>0</tilted></_>
    <_>
      <rects>
        <_>
          7 8 6 15 -1.</_>
        <_>
          10 8 3 15 2.</_></rects>
      <tilted>0</tilted></_>
    <_>
      <rects>
        <_>
          7 11 6 2 -1.</_>
        <_>
          10 11 3 2 2.</_></rects>
      <tilted>0</tilted></_>
    <_>
      <rects>
        <_>
          8 2 14 14 -1.</_>
        <_>
          8 9 14 7 2.</_></rects>
      <tilted>0</tilted></_>
    <_>
      <rects>
        <_>
          8 5 16 18 -1.</_>
        <_>
          8 5 8 9 2.</_>
        <_>
          16 14 8 9 2.</_></rects>
      <tilted>0</tilted></_>
    <_>
      <rects>
        <_>
          8 9 9 8 -1.</_>
        <_>
          11 9 3 8 2.</_></rects>
      <tilted>0</tilted></_>
    <_>
      <rects>
        <_>
          8 12 6 12 -1.</_>
        <_>
          11 12 3 12 2.</_></rects>
      <tilted>0</tilted></_>
    <_>
      <rects>
        <_>
          8 16 6 3 -1.</_>
        <_>
          11 16 3 3 2.</_></rects>
      <tilted>0</tilted></_>
    <_>
      <rects>
        <_>
          9 0 1 12 -1.</_>
        <_>
          9 6 1 6 2.</_></rects>
      <tilted>0</tilted></_>
    <_>
      <rects>
        <_>
          9 0 12 10 -1.</_>
        <_>
          9 0 6 5 2.</_>
        <_>
          15 5 6 5 2.</_></rects>
      <tilted>0</tilted></_>
    <_>
      <rects>
        <_>
          9 5 4 11 -1.</_>
        <_>
          11 5 2 11 2.</_></rects>
      <tilted>0</tilted></_>
    <_>
      <rects>
        <_>
          9 9 10 4 -1.</_>
        <_>
          9 9 5 2 2.</_>
        <_>
          14 11 5 2 2.</_></rects>
      <tilted>0</tilted></_>
    <_>
      <rects>
        <_>
          9 12 6 6 -1.</_>
        <_>
          12 12 3 6 2.</_></rects>
      <tilted>0</tilted></_>
    <_>
      <rects>
        <_>
          10 0 10 12 -1.</_>
        <_>
          10 0 5 6 2.</_>
        <_>
          15 6 5 6 2.</_></rects>
      <tilted>0</tilted></_>
    <_>
      <rects>
        <_>
          10 4 1 2 -1.</_>
        <_>
          10 5 1 1 2.</_></rects>
      <tilted>0</tilted></_>
    <_>
      <rects>
        <_>
          10 8 2 3 -1.</_>
        <_>
          11 8 1 3 2.</_></rects>
      <tilted>0</tilted></_>
    <_>
      <rects>
        <_>
          11 3 1 4 -1.</_>
        <_>
          11 5 1 2 2.</_></rects>
      <tilted>0</tilted></_>
    <_>
      <rects>
        <_>
          11 21 8 3 -1.</_>
        <_>
          15 21 4 3 2.</_></rects>
      <tilted>0</tilted></_>
    <_>
      <rects>
        <_>
          12 4 4 19 -1.</_>
        <_>
          14 4 2 19 2.</_></rects>
      <tilted>0</tilted></_>
    <_>
      <rects>
        <_>
          12 5 3 2 -1.</_>
        <_>
          12 6 3 1 2.</_></rects>
      <tilted>0</tilted></_>
    <_>
      <rects>
        <_>
          12 8 3 2 -1.</_>
        <_>
          12 9 3 1 2.</_></rects>
      <tilted>0</tilted></_>
    <_>
      <rects>
        <_>
          13 8 6 13 -1.</_>
        <_>
          16 8 3 13 2.</_></rects>
      <tilted>0</tilted></_>
    <_>
      <rects>
        <_>
          13 15 11 2 -1.</_>
        <_>
          13 16 11 1 2.</_></rects>
      <tilted>0</tilted></_>
    <_>
      <rects>
        <_>
          13 23 8 1 -1.</_>
        <_>
          17 23 4 1 2.</_></rects>
      <tilted>0</tilted></_>
    <_>
      <rects>
        <_>
          15 1 6 12 -1.</_>
        <_>
          15 1 3 6 2.</_>
        <_>
          18 7 3 6 2.</_></rects>
      <tilted>0</tilted></_>
    <_>
      <rects>
        <_>
          15 15 7 4 -1.</_>
        <_>
          15 17 7 2 2.</_></rects>
      <tilted>0</tilted></_>
    <_>
      <rects>
        <_>
          16 9 4 8 -1.</_>
        <_>
          16 9 2 4 2.</_>
        <_>
          18 13 2 4 2.</_></rects>
      <tilted>0</tilted></_>
    <_>
      <rects>
        <_>
          16 9 6 10 -1.</_>
        <_>
          19 9 3 10 2.</_></rects>
      <tilted>0</tilted></_>
    <_>
      <rects>
        <_>
          17 22 2 1 -1.</_>
        <_>
          18 22 1 1 2.</_></rects>
      <tilted>0</tilted></_>
    <_>
      <rects>
        <_>
          18 9 4 11 -1.</_>
        <_>
          20 9 2 11 2.</_></rects>
      <tilted>0</tilted></_>
    <_>
      <rects>
        <_>
          18 23 2 1 -1.</_>
        <_>
          19 23 1 1 2.</_></rects>
      <tilted>0</tilted></_>
    <_>
      <rects>
        <_>
          19 1 5 14 -1.</_>
        <_>
          19 8 5 7 2.</_></rects>
      <tilted>0</tilted></_>
    <_>
      <rects>
        <_>
          20 0 2 1 -1.</_>
        <_>
          21 0 1 1 2.</_></rects>
      <tilted>0</tilted></_>
    <_>
      <rects>
        <_>
          20 0 1 2 -1.</_>
        <_>
          20 1 1 1 2.</_></rects>
      <tilted>0</tilted></_>
    <_>
      <rects>
        <_>
          20 5 4 19 -1.</_>
        <_>
          22 5 2 19 2.</_></rects>
      <tilted>0</tilted></_>
    <_>
      <rects>
        <_>
          20 8 4 10 -1.</_>
        <_>
          20 8 2 5 2.</_>
        <_>
          22 13 2 5 2.</_></rects>
      <tilted>0</tilted></_>
    <_>
      <rects>
        <_>
          20 11 2 8 -1.</_>
        <_>
          20 15 2 4 2.</_></rects>
      <tilted>0</tilted></_>
    <_>
      <rects>
        <_>
          21 0 1 14 -1.</_>
        <_>
          21 7 1 7 2.</_></rects>
      <tilted>0</tilted></_>
    <_>
      <rects>
        <_>
          21 11 1 12 -1.</_>
        <_>
          21 17 1 6 2.</_></rects>
      <tilted>0</tilted></_>
    <_>
      <rects>
        <_>
          21 16 2 2 -1.</_>
        <_>
          22 16 1 2 2.</_></rects>
      <tilted>0</tilted></_>
    <_>
      <rects>
        <_>
          21 22 2 2 -1.</_>
        <_>
          22 22 1 2 2.</_></rects>
      <tilted>0</tilted></_>
    <_>
      <rects>
        <_>
          22 0 2 12 -1.</_>
        <_>
          23 0 1 12 2.</_></rects>
      <tilted>0</tilted></_>
    <_>
      <rects>
        <_>
          22 1 2 12 -1.</_>
        <_>
          23 1 1 12 2.</_></rects>
      <tilted>0</tilted></_>
    <_>
      <rects>
        <_>
          22 7 2 16 -1.</_>
        <_>
          22 7 1 8 2.</_>
        <_>
          23 15 1 8 2.</_></rects>
      <tilted>0</tilted></_>
    <_>
      <rects>
        <_>
          22 11 2 3 -1.</_>
        <_>
          23 11 1 3 2.</_></rects>
      <tilted>0</tilted></_>
    <_>
      <rects>
        <_>
          23 0 1 24 -1.</_>
        <_>
          23 12 1 12 2.</_></rects>
      <tilted>0</tilted></_>
    <_>
      <rects>
        <_>
          23 11 1 2 -1.</_>
        <_>
          23 12 1 1 2.</_></rects>
      <tilted>0</tilted></_>
    <_>
      <rects>
        <_>
          23 17 1 2 -1.</_>
        <_>
          23 18 1 1 2.</_></rects>
      <tilted>0</tilted></_>
    <_>
      <rects>
        <_>
          23 19 1 3 -1.</_>
        <_>
          23 20 1 1 2.</_></rects>
      <tilted>0</tilted></_>
    <_>
      <rects>
        <_>
          23 22 1 2 -1.</_>
        <_>
          23 23 1 1 2.</_></rects>
      <tilted>0</tilted></_></features></cascade>
</opencv_storage>
