<?xml version="1.0"?>
<opencv_storage>
<stage5>
  <maxWeakCount>5</maxWeakCount>
  <stageThreshold>-6.6501915454864502e-01</stageThreshold>
  <weakClassifiers>
    <_>
      <internalNodes>
        0 -1 1315 5.6926935911178589e-02</internalNodes>
      <leafValues>
        -6.5106385946273804e-01 8.1538462638854980e-01</leafValues></_>
    <_>
      <internalNodes>
        0 -1 12513 -5.6401239708065987e-03</internalNodes>
      <leafValues>
        4.7401160001754761e-01 -7.8502315282821655e-01</leafValues></_>
    <_>
      <internalNodes>
        0 -1 146754 9.7999433055520058e-03</internalNodes>
      <leafValues>
        -4.4249272346496582e-01 7.1968764066696167e-01</leafValues></_>
    <_>
      <internalNodes>
        0 -1 161026 -2.3643058375455439e-04</internalNodes>
      <leafValues>
        5.6014376878738403e-01 -6.4878660440444946e-01</leafValues></_>
    <_>
      <internalNodes>
        0 -1 101791 -7.2430074214935303e-03</internalNodes>
      <leafValues>
        7.0016676187515259e-01 -4.5731404423713684e-01</leafValues></_></weakClassifiers></stage5>
</opencv_storage>
