<?xml version="1.0"?>
<opencv_storage>
<stage8>
  <maxWeakCount>6</maxWeakCount>
  <stageThreshold>-7.0941108465194702e-01</stageThreshold>
  <weakClassifiers>
    <_>
      <internalNodes>
        0 -1 85931 -2.9377438127994537e-02</internalNodes>
      <leafValues>
        6.1643832921981812e-01 -6.3876652717590332e-01</leafValues></_>
    <_>
      <internalNodes>
        0 -1 161669 1.9987099803984165e-03</internalNodes>
      <leafValues>
        -6.3426864147186279e-01 3.4777694940567017e-01</leafValues></_>
    <_>
      <internalNodes>
        0 -1 133106 -3.1568662961944938e-04</internalNodes>
      <leafValues>
        2.0636606216430664e-01 -1.</leafValues></_>
    <_>
      <internalNodes>
        0 -1 162335 5.8283654652768746e-05</internalNodes>
      <leafValues>
        -4.5960125327110291e-01 5.1692044734954834e-01</leafValues></_>
    <_>
      <internalNodes>
        0 -1 93538 7.7053204178810120e-02</internalNodes>
      <leafValues>
        2.5605100393295288e-01 -9.6435868740081787e-01</leafValues></_>
    <_>
      <internalNodes>
        0 -1 50605 1.1147070908918977e-03</internalNodes>
      <leafValues>
        -4.1571339964866638e-01 5.6545513868331909e-01</leafValues></_></weakClassifiers></stage8>
</opencv_storage>
